digraph Tree {
node [shape=box, style="filled, rounded", color="black", fontname=helvetica] ;
edge [fontname=helvetica] ;
0 [label=<petal width (cm) &le; 0.8<br/>gini = 0.664<br/>samples = 105<br/>value = [31, 37, 37]<br/>class = versicolor>, fillcolor="#39e58100"] ;
1 [label=<gini = 0.0<br/>samples = 31<br/>value = [31, 0, 0]<br/>class = setosa>, fillcolor="#e58139ff"] ;
0 -> 1 [labeldistance=2.5, labelangle=45, headlabel="True"] ;
2 [label=<petal width (cm) &le; 1.75<br/>gini = 0.5<br/>samples = 74<br/>value = [0, 37, 37]<br/>class = versicolor>, fillcolor="#39e58100"] ;
0 -> 2 [labeldistance=2.5, labelangle=-45, headlabel="False"] ;
3 [label=<petal length (cm) &le; 4.95<br/>gini = 0.214<br/>samples = 41<br/>value = [0, 36, 5]<br/>class = versicolor>, fillcolor="#39e581dc"] ;
2 -> 3 ;
4 [label=<petal width (cm) &le; 1.6<br/>gini = 0.056<br/>samples = 35<br/>value = [0, 34, 1]<br/>class = versicolor>, fillcolor="#39e581f8"] ;
3 -> 4 ;
5 [label=<gini = 0.0<br/>samples = 34<br/>value = [0, 34, 0]<br/>class = versicolor>, fillcolor="#39e581ff"] ;
4 -> 5 ;
6 [label=<gini = 0.0<br/>samples = 1<br/>value = [0, 0, 1]<br/>class = virginica>, fillcolor="#8139e5ff"] ;
4 -> 6 ;
7 [label=<petal width (cm) &le; 1.55<br/>gini = 0.444<br/>samples = 6<br/>value = [0, 2, 4]<br/>class = virginica>, fillcolor="#8139e57f"] ;
3 -> 7 ;
8 [label=<gini = 0.0<br/>samples = 3<br/>value = [0, 0, 3]<br/>class = virginica>, fillcolor="#8139e5ff"] ;
7 -> 8 ;
9 [label=<petal length (cm) &le; 5.45<br/>gini = 0.444<br/>samples = 3<br/>value = [0, 2, 1]<br/>class = versicolor>, fillcolor="#39e5817f"] ;
7 -> 9 ;
10 [label=<gini = 0.0<br/>samples = 2<br/>value = [0, 2, 0]<br/>class = versicolor>, fillcolor="#39e581ff"] ;
9 -> 10 ;
11 [label=<gini = 0.0<br/>samples = 1<br/>value = [0, 0, 1]<br/>class = virginica>, fillcolor="#8139e5ff"] ;
9 -> 11 ;
12 [label=<petal length (cm) &le; 4.85<br/>gini = 0.059<br/>samples = 33<br/>value = [0, 1, 32]<br/>class = virginica>, fillcolor="#8139e5f7"] ;
2 -> 12 ;
13 [label=<sepal length (cm) &le; 5.95<br/>gini = 0.444<br/>samples = 3<br/>value = [0, 1, 2]<br/>class = virginica>, fillcolor="#8139e57f"] ;
12 -> 13 ;
14 [label=<gini = 0.0<br/>samples = 1<br/>value = [0, 1, 0]<br/>class = versicolor>, fillcolor="#39e581ff"] ;
13 -> 14 ;
15 [label=<gini = 0.0<br/>samples = 2<br/>value = [0, 0, 2]<br/>class = virginica>, fillcolor="#8139e5ff"] ;
13 -> 15 ;
16 [label=<gini = 0.0<br/>samples = 30<br/>value = [0, 0, 30]<br/>class = virginica>, fillcolor="#8139e5ff"] ;
12 -> 16 ;
}